,0
0,0.1209937
1,-0.08080031
2,-0.7828668
3,0.17983809
4,0.06857365
5,0.048003502
6,0.4187185
7,-0.18543649
8,0.23911636
9,0.2615496
10,-0.37928057
11,0.0005578175
12,0.05729934
13,0.104831606
14,0.022495558
15,-0.5189678
16,-0.353801
17,-0.11781465
18,0.030695193
19,0.14966637
20,0.14588375
21,0.2260054
22,0.14037785
23,-0.16355555
24,-0.14174537
25,-0.17927879
26,0.14768523
27,-0.4995456
28,0.2412147
29,0.38130838
30,0.2247841
31,-0.16889147
32,0.18823776
33,-0.025002006
34,0.29093012
35,-0.0033288542
36,0.038694613
37,-0.5925906
38,0.2599619
39,0.23936442
40,-0.13174708
41,0.09009359
42,-0.18595278
43,-0.12015532
44,-0.11390481
45,0.13956478
46,0.038646232
47,0.3033446
48,-0.122943625
49,-0.2369417
50,-0.39638066
51,0.14867906
52,0.23984921
53,-0.053738065
54,0.012338815
55,0.08679097
56,0.15126975
57,0.15759094
58,0.22521347
59,-0.19984943
60,0.2231759
61,0.123702556
62,0.24943128
63,-0.13237432
64,0.16583563
65,0.23290819
66,0.23455265
67,-0.07716077
68,-0.09293555
69,-0.2055271
70,0.27581683
71,-0.012251236
72,0.11368626
73,0.09451823
74,0.2441358
75,-0.051746532
76,0.1352659
77,-0.2299593
78,-0.25296158
79,-0.3348158
80,0.019682089
81,-0.11821268
82,0.35266823
83,0.3103329
84,-0.0537533
85,0.043258347
86,-0.07826517
87,0.36395833
88,0.0038534682
89,0.14956583
90,0.20463035
91,-0.046367444
92,0.2484811
93,0.026249364
94,-0.16932166
95,-0.18761414
96,-0.049753636
97,-0.5666333
98,0.07762426
99,-0.10356547
100,0.25919738
101,0.16816512
102,0.40386644
103,0.040195763
104,0.18373375
105,0.1066906
106,0.23947173
107,-0.18232277
108,-0.3622391
109,0.0738433
110,-0.065087184
111,-0.10040162
112,0.07399893
113,-0.15639608
114,0.35984606
115,0.18976128
116,-0.38290676
117,-0.0488818
118,-0.022953313
119,0.32985672
120,-0.14101517
121,0.43044513
122,0.053203
123,-0.034771077
124,-0.2008255
125,0.17844674
126,-0.06091678
127,0.07813074
128,-0.16978957
129,-0.027336642
130,0.108422175
131,0.20649844
132,-0.32607573
133,0.47260964
134,-0.40057576
135,0.14390123
136,0.3191533
137,-0.27413
138,0.36255956
139,-0.30608606
140,0.12187827
141,0.10820376
142,0.13684714
143,0.14240593
144,0.53214395
145,-0.032551523
146,0.3627552
147,0.03654701
148,0.1860211
149,0.1622549
150,0.07983813
151,0.084878005
152,-0.054968618
153,-0.22222415
154,0.10536258
155,0.07442813
156,0.11653256
157,0.06049705
158,0.11847692
159,-0.06208922
160,0.25709707
161,0.23520094
162,-0.31661603
163,-0.033053804
164,0.31398416
165,0.05848986
166,0.11999482
167,-0.082621165
168,0.9549568
169,-0.06612502
170,0.12836108
171,0.056494765
172,0.23611102
173,0.18837677
174,0.25859427
175,0.16354278
176,0.26837456
177,-0.5323515
178,0.0348741
179,0.08661258
180,0.20305151
181,0.3327257
182,0.016401473
183,0.31873837
184,0.005030265
185,0.32550353
186,0.25713682
187,0.6498219
188,-0.028474696
189,0.16830298
190,0.032009512
191,0.09859365
192,-0.02380204
193,-0.03430716
194,0.24320991
195,-0.37684146
196,-0.11474472
197,-0.22431572
198,0.0033617206
199,0.12447219
200,-0.31195602
201,0.085619524
202,0.12927958
203,0.19942117
204,0.21455711
205,-0.17761298
206,-0.60111463
207,0.13977623
208,0.09508645
209,-0.036111925
210,0.2875478
211,0.33912653
212,0.25909185
213,-0.13938515
214,0.0113967005
215,0.01978448
216,-0.048437405
217,-0.048800394
218,-0.38138872
219,-0.18628618
220,-0.35344833
221,0.39109224
222,0.3482944
223,-0.037856597
224,-0.11847223
225,-0.25489414
226,-0.22328037
227,-0.02251124
228,0.22187772
229,-0.19283324
230,0.46472758
231,-0.31965736
232,0.1942452
233,-0.12849826
234,0.17443043
235,0.13607493
236,0.08616503
237,0.17380056
238,-0.30666885
239,-0.045030124
240,-0.060493898
241,0.14630084
242,-0.012826648
243,0.03280773
244,0.002450738
245,-0.0033119693
246,-0.3637584
247,0.21849729
248,0.04273886
249,0.16963243
250,0.073271975
251,-0.01817377
252,0.20768577
253,0.10652917
254,0.1099202
255,-0.38304955
256,0.4517225
257,0.17938393
258,0.21390045
259,0.017382212
260,-0.21893248
261,-0.15887105
262,0.08747109
263,0.18773709
264,-0.19999693
265,0.16468883
266,-0.09899041
267,-0.049728222
268,0.1579542
269,-0.06638759
270,0.0068977755
271,-0.0034724232
272,-0.00564456
273,0.18523374
274,0.05696644
275,-0.5847777
276,0.23785341
277,-0.34854233
278,0.32092696
279,0.0029872842
280,-0.4094861
281,0.34932056
282,-0.07127345
283,-0.0716542
284,0.06503652
285,0.30078083
286,0.3210269
287,0.21564591
288,0.16523102
289,0.19488752
290,0.20938778
291,0.19610265
292,-0.36228818
293,-0.053624697
294,0.15185685
295,0.26878923
296,0.13796026
297,0.0496639
298,-0.09211749
299,-0.0648693
300,0.32728755
301,0.3224549
302,0.21683499
303,-0.09567105
304,0.279491
305,0.0041047484
306,-0.23247333
307,-0.49048936
308,0.10079117
309,-0.25330192
310,-0.18986502
311,0.3576877
312,-0.41524345
313,-0.09345299
314,0.034111083
315,-0.13977762
316,-0.082690515
317,-0.10246975
318,0.116548315
319,-0.044063937
320,0.07486938
321,-0.15920989
322,0.21212097
323,0.11668455
324,0.36477268
325,0.3057832
326,-0.585882
327,0.3318056
328,-0.21220405
329,0.38770413
330,-0.13705996
331,0.41614544
332,-0.023616888
333,-0.03190194
334,-0.25915587
335,0.13734221
336,0.34854627
337,-0.048735246
338,-0.20989138
339,-0.1493636
340,-0.11102514
341,0.5247537
342,-0.1611212
343,0.16252983
344,-0.2552212
345,-0.46528837
346,0.21077558
347,0.56883085
348,0.3186304
349,-0.1516538
350,0.13902664
351,0.14227583
352,-0.0131583065
353,-0.20901147
354,0.12636265
355,0.028719045
356,0.014270802
357,0.1567565
358,0.225101
359,0.4568086
360,-0.07865705
361,-0.024386294
362,0.12556462
363,-0.13437
364,0.044608273
365,0.2518102
366,0.09846852
367,-0.018032024
368,0.27447566
369,0.13539848
370,-0.19009717
371,0.19075264
372,-0.09567878
373,0.032258198
374,-0.08623217
375,0.21464622
376,0.12314173
377,0.24299254
378,-0.013784468
379,-0.025770642
380,-0.052409615
381,0.31021196
382,-0.17279978
383,0.08639458
384,-0.04030671
385,0.018622326
386,-0.23091224
387,0.332559
388,-0.1905022
389,0.011781403
390,-0.37976936
391,0.022183733
392,-0.08439971
393,0.13240513
394,-0.6309173
395,-0.124668114
396,-0.2289865
397,0.00950756
398,0.18365982
399,-0.18809892
400,-0.08186893
401,0.17096238
402,0.2014421
403,0.07355828
404,0.101495214
405,0.03178235
406,0.09091579
407,-0.045731936
408,-0.3559438
409,0.17167681
410,-0.11375203
411,-0.087781616
412,0.23208535
413,-0.14860263
414,-0.22123939
415,0.03488908
416,0.06887163
417,0.2025373
418,-0.17933804
419,0.32324854
420,-0.19114777
421,-0.036271118
422,0.010028623
423,0.2605229
424,0.13193345
425,0.21398576
426,0.3265702
427,0.25416505
428,0.289688
429,-0.017763998
430,0.059875533
431,-0.008117363
432,-0.0889723
433,-0.36064053
434,-0.059112582
435,0.03667736
436,0.17803618
437,-0.088779174
438,-0.29324713
439,0.37446824
440,0.022866812
441,-0.12045081
442,-0.5114636
443,-0.41305977
444,-0.12791397
445,-0.15455721
446,-0.17836796
447,-0.336313
448,0.3012148
449,-0.403456
450,-0.2658959
451,0.27867496
452,-0.45528543
453,-0.12981972
454,-0.012436671
455,0.10933927
456,-0.14112943
457,0.18865488
458,-0.22260559
459,0.1872801
460,-0.1134039
461,0.23602656
462,-0.12167344
463,0.0028156475
464,-0.16990185
465,-0.07980231
466,-0.3498541
467,0.04405122
468,-0.09380126
469,0.04533391
470,0.04657224
471,0.00026778132
472,-0.01825397
473,0.11576535
474,0.3067007
475,-0.106149
476,-0.25279087
477,0.1734562
478,0.12264651
479,-0.314205
480,0.32076687
481,0.039671455
482,0.46347576
483,-0.08763042
484,-0.002819132
485,-0.07075256
486,0.14109981
487,-0.001969019
488,0.06241095
489,0.07160032
490,0.35150737
491,0.10668707
492,0.11373124
493,-0.030943625
494,-0.13404396
495,-0.0944597
496,-0.02780742
497,0.26528117
498,0.05375553
499,0.11180123
500,-0.11749808
501,0.32135472
502,-0.22868761
503,0.017615952
504,-0.10387047
505,0.5956739
506,-0.24648629
507,0.07399471
508,0.1152226
509,0.042948045
510,0.27820078
511,0.25176
