,0
0,0.17575622
1,0.06410085
2,-0.50684196
3,-0.09521617
4,0.03384671
5,0.15260465
6,-0.05082868
7,-0.07163436
8,0.35898966
9,0.16050617
10,-0.1433238
11,0.07248022
12,0.042271025
13,0.10386627
14,0.029098658
15,-0.34359977
16,-0.22686788
17,-0.14183997
18,0.0376034
19,-0.043048777
20,-0.084200956
21,0.24454333
22,0.15835276
23,-0.091505654
24,-0.24962878
25,-0.27268657
26,0.17957771
27,-0.12690231
28,0.34605747
29,0.2691955
30,0.112001166
31,-0.15981847
32,0.13172466
33,-0.08655277
34,0.11790097
35,0.16078827
36,0.095753
37,-0.30441648
38,0.28941435
39,0.29112095
40,-0.34113395
41,0.02320975
42,-0.04928832
43,-0.11890526
44,-0.120584875
45,0.24431601
46,0.059317797
47,0.3355975
48,-0.35404313
49,-0.2130493
50,-0.2566251
51,0.084731825
52,0.26996416
53,-0.19559538
54,0.043121688
55,-0.01948652
56,-0.0019268692
57,0.17470166
58,0.14270695
59,-0.3130353
60,0.19951622
61,0.08433151
62,0.22894812
63,-0.25439358
64,0.16900657
65,0.16566975
66,0.29969847
67,0.027889319
68,-0.10036389
69,-0.01916913
70,-0.23208655
71,-0.05128748
72,0.12237058
73,0.18551797
74,0.21493551
75,0.020169575
76,-0.06312218
77,-0.06682074
78,-0.19101802
79,-0.32256603
80,-0.12198926
81,-0.055864874
82,-0.048294485
83,0.16153765
84,-0.03168416
85,0.041991934
86,-0.014900938
87,0.032727927
88,0.08735113
89,0.15865912
90,0.14813368
91,-0.0650363
92,0.20390105
93,0.07536603
94,0.039212003
95,-0.29802203
96,-0.083225995
97,-0.4011611
98,0.033013128
99,-0.09421423
100,0.16308333
101,0.083878815
102,0.37159064
103,0.11374916
104,0.040116705
105,0.16343953
106,0.22983125
107,-0.19065155
108,-0.13086453
109,-0.044318482
110,-0.03508302
111,-0.09650733
112,0.10833671
113,-0.35590994
114,0.42892987
115,0.1256269
116,-0.3224852
117,-0.27359188
118,-0.14385653
119,0.32441807
120,-0.069087684
121,0.39166778
122,0.008106651
123,-0.15907589
124,-0.25427237
125,0.21955994
126,-0.71980554
127,-0.16518268
128,-0.23141131
129,-0.055286955
130,0.12178685
131,0.012738928
132,-0.29655355
133,0.05995208
134,-0.18103835
135,0.23820414
136,0.3078189
137,-0.30845627
138,0.020406555
139,-0.36947083
140,0.17496018
141,0.09020513
142,0.07272029
143,0.20318629
144,0.47479215
145,0.060887285
146,0.17456263
147,-0.03569527
148,0.17705953
149,-0.035814106
150,-0.16190763
151,-0.10901012
152,0.105209574
153,-0.17748147
154,0.18887171
155,-0.022054512
156,0.070632905
157,-0.16987564
158,-0.30582
159,-0.059360165
160,0.013618454
161,-0.026662335
162,-0.30317146
163,-0.09079261
164,0.36477625
165,0.11967159
166,-0.0791163
167,-0.14559412
168,1.0386406
169,0.09745203
170,-0.08224809
171,0.10190815
172,0.2731166
173,0.2648766
174,0.08028103
175,0.07436061
176,0.2696311
177,-0.2588422
178,0.0052513666
179,-0.031112358
180,0.16530207
181,0.2290385
182,0.15625688
183,0.22848204
184,0.14042881
185,0.37128073
186,0.0030071288
187,0.6193439
188,0.11516275
189,-0.014938787
190,0.11529349
191,-0.14647377
192,-0.024774902
193,-0.022364698
194,0.29843336
195,-0.12791437
196,-0.21412021
197,-0.22476375
198,0.12518045
199,0.040064193
200,0.099239476
201,0.015171226
202,-0.081323534
203,-0.030464962
204,0.09627692
205,-0.40385282
206,-0.46294957
207,0.04334065
208,0.15369968
209,-0.059695303
210,0.30222315
211,0.35373127
212,0.26794368
213,-0.124582194
214,-0.043760523
215,-0.05389995
216,-0.24715136
217,-0.13946745
218,-0.17126629
219,-0.19675198
220,-0.46095964
221,0.47461402
222,0.41229302
223,-0.10170085
224,-0.4041901
225,-0.06622064
226,-0.18029815
227,-0.11459936
228,0.10416411
229,-0.111750804
230,0.44227463
231,-0.07954943
232,0.19973871
233,-0.15114385
234,0.17881902
235,0.16301621
236,0.36977762
237,0.09878586
238,-0.23914447
239,-0.04215339
240,0.0045886766
241,-0.19763146
242,-0.20788646
243,-0.089093946
244,0.06268535
245,0.13290487
246,-0.34799266
247,0.047173478
248,0.08053379
249,0.22967094
250,-0.060360424
251,-0.07453239
252,0.4470713
253,-0.002008468
254,-0.14935598
255,-0.4229393
256,0.47439498
257,0.12269152
258,0.1750889
259,0.07184708
260,-0.23652063
261,-0.0010382682
262,0.09570932
263,0.078242324
264,0.18139051
265,0.15561154
266,0.0766461
267,-0.0060860403
268,0.106478505
269,0.0035559386
270,-0.029796168
271,0.11571081
272,0.11199674
273,0.11603671
274,-0.059851103
275,-0.40812638
276,0.12620823
277,-0.20771414
278,0.2408573
279,0.08777873
280,-0.12723781
281,-0.053028166
282,-0.008978257
283,-0.08681998
284,0.25780678
285,0.059061162
286,0.039257206
287,0.09068723
288,-0.053689152
289,0.14580405
290,-0.17002062
291,0.2474373
292,-0.5806221
293,-0.07217303
294,0.1846987
295,0.23262733
296,0.021867692
297,0.0066570677
298,0.11655801
299,-0.028606698
300,0.32372722
301,0.169747
302,-0.06534099
303,0.16563848
304,0.55417717
305,-0.19985723
306,-0.15345773
307,-0.6763241
308,0.12505588
309,-0.1231986
310,0.039026495
311,0.1028694
312,-0.19116251
313,0.08539145
314,-0.064059146
315,-0.017278902
316,-0.16016532
317,-0.2525587
318,-0.0053579807
319,0.053089797
320,0.12511435
321,0.060845073
322,0.20667155
323,-0.15473886
324,0.50067455
325,0.41690525
326,-0.33721408
327,0.3774491
328,-0.07045752
329,0.21404116
330,0.102252826
331,0.2555589
332,0.005497381
333,-0.05560855
334,-0.20243588
335,0.022517692
336,0.3311779
337,0.058472075
338,-0.13241997
339,-0.22647479
340,-0.011248596
341,0.51107836
342,-0.08120939
343,0.10914421
344,-0.09027618
345,-0.57391876
346,0.10775811
347,0.608214
348,0.40327883
349,-0.07586123
350,-0.04387373
351,0.14559996
352,-0.064105354
353,-0.23075998
354,0.097860195
355,0.16016717
356,0.027389418
357,0.14063591
358,0.25316507
359,0.4504285
360,-0.23893416
361,-0.020822711
362,-0.050826393
363,-0.099361226
364,-0.15932453
365,0.06212364
366,0.25961894
367,-0.055377223
368,0.41876116
369,0.123837955
370,-0.08511928
371,0.31093177
372,-0.15943375
373,-0.015917052
374,-0.11195138
375,0.1570327
376,0.0048148334
377,0.20742272
378,0.07028883
379,-0.15932885
380,-0.020885445
381,0.25330377
382,-0.1829715
383,-0.17794389
384,-0.0779906
385,0.023727521
386,-0.017642796
387,-0.022607159
388,-0.29712573
389,0.057948083
390,-0.4619915
391,0.21245097
392,0.036852054
393,-0.03991706
394,-0.6500283
395,-0.2751659
396,-0.08818482
397,-0.14834322
398,0.17909014
399,-0.17598236
400,-0.11455928
401,-0.025650846
402,0.13276729
403,0.12749891
404,0.10188697
405,0.009872619
406,-0.16030698
407,-0.17835079
408,-0.25022817
409,-0.004806526
410,-0.09223218
411,-0.09576564
412,0.36594597
413,-0.0037868023
414,-0.049290597
415,-0.10827967
416,0.026362298
417,0.13247856
418,0.03746654
419,0.14295907
420,0.02539754
421,-0.25204676
422,-0.214537
423,0.32252496
424,-0.108460404
425,0.200636
426,0.2794934
427,0.23169798
428,0.037209436
429,-0.0009998877
430,-0.56928694
431,0.20243159
432,-0.022197094
433,-0.33049905
434,0.022332478
435,-0.068672195
436,0.13705948
437,-0.03318309
438,-0.17638978
439,0.2903874
440,0.012557521
441,-0.15431038
442,-0.6274131
443,-0.5970185
444,-0.049550854
445,-0.050364837
446,-0.3390453
447,-0.23551121
448,0.3450781
449,-0.3328817
450,-0.40588892
451,0.22238722
452,-0.3969999
453,0.0040235
454,-0.08695308
455,0.10341291
456,-0.595034
457,0.13739796
458,-0.27271855
459,0.18813026
460,-0.14247939
461,0.14376664
462,0.07558405
463,0.056897935
464,-0.32908133
465,-0.070801094
466,-0.138989
467,0.09105127
468,-0.041700583
469,-0.053554934
470,-0.017037313
471,-0.06141542
472,-0.00013130438
473,0.09983372
474,0.12777421
475,-0.03135732
476,-0.35849866
477,0.2814597
478,0.14511198
479,-0.07880746
480,0.2552547
481,-0.024566941
482,0.46581897
483,0.123330146
484,-0.105009966
485,0.004044611
486,0.090143576
487,0.016573025
488,-0.046901144
489,0.009282822
490,0.2705371
491,-0.19166695
492,-0.007506162
493,-0.10521956
494,0.044787854
495,0.14569636
496,0.0993413
497,0.29173988
498,0.14287587
499,0.099625014
500,-0.20160542
501,0.06965862
502,-0.076232605
503,0.035082538
504,-0.11070231
505,0.6611923
506,-0.17038707
507,-0.33352923
508,0.04604102
509,0.09739724
510,0.1733443
511,0.10410543
