,0
0,0.13526702
1,-0.094735615
2,-0.4305071
3,0.22616206
4,0.09508424
5,-0.013675764
6,0.3769527
7,-0.29329473
8,0.16686128
9,0.3563056
10,-0.32102826
11,-0.0068203676
12,0.037279554
13,0.08993642
14,0.015282199
15,-0.45970792
16,-0.6260427
17,-0.50645226
18,-0.1743814
19,0.37267238
20,0.46193013
21,0.18212165
22,0.16696545
23,0.20753925
24,-0.15272203
25,-0.439977
26,0.28037703
27,-0.1416215
28,0.020845348
29,0.048371658
30,0.18902974
31,-0.09364809
32,0.11894718
33,-0.29953924
34,0.12574513
35,-0.30118102
36,0.26263434
37,-0.42855912
38,0.43679684
39,-0.23725559
40,-0.023876345
41,0.12545216
42,-0.02332449
43,-0.0030248184
44,0.1775309
45,0.2117452
46,-0.053731013
47,0.4136334
48,-0.21555571
49,0.034562193
50,-0.23439917
51,0.4162799
52,-0.18404166
53,0.22112824
54,-0.08815547
55,-0.06996795
56,-0.03782025
57,-0.07057032
58,0.14735147
59,0.29063624
60,-0.16079447
61,0.10397023
62,0.12760897
63,-0.15600257
64,0.13794166
65,0.0346409
66,0.24112618
67,-0.28090388
68,0.14828302
69,-0.24928474
70,0.3741616
71,-0.13362467
72,0.025216535
73,-0.10806109
74,-0.07494711
75,-0.2839744
76,0.085767955
77,-0.10545331
78,0.045850176
79,-0.12019786
80,-0.116301775
81,-0.26254678
82,0.012351792
83,0.15390761
84,-0.057135142
85,0.074445635
86,-0.095909774
87,0.093151495
88,0.05891461
89,0.38503265
90,0.384062
91,-0.16107112
92,0.32955447
93,-0.015335744
94,-0.63158673
95,0.017847475
96,0.0013646525
97,-0.24004652
98,0.16359285
99,0.1161727
100,-0.13214731
101,0.04579099
102,0.34075338
103,0.18129537
104,0.16678539
105,0.058050394
106,0.18318355
107,-0.17809069
108,0.029669177
109,-0.15274593
110,0.14613673
111,0.061755873
112,-0.19688255
113,0.04093238
114,0.015005425
115,-0.1117724
116,-0.4833515
117,0.16864927
118,-0.16320956
119,0.057951126
120,-0.13569996
121,0.24485353
122,0.1787091
123,0.12654063
124,0.26537412
125,-0.17534721
126,0.39110065
127,-0.14768235
128,-0.1691201
129,0.078232795
130,0.114961445
131,0.026877731
132,0.1743662
133,-0.42011905
134,-0.3039875
135,0.21704993
136,-0.25498536
137,0.53976965
138,0.028129186
139,-0.0046199113
140,0.16592936
141,-0.15316229
142,0.06106025
143,-0.3000388
144,0.48525417
145,-0.014896683
146,0.29714042
147,0.10610652
148,0.07389496
149,0.4213918
150,-0.16578792
151,0.23436862
152,0.09883626
153,-0.23470026
154,-0.30622423
155,-0.12048838
156,-0.17568484
157,0.2765827
158,0.04993908
159,0.45710856
160,0.111566216
161,0.106711775
162,-0.22054604
163,0.28082258
164,-0.28338125
165,-0.0061873887
166,0.22432059
167,-0.02923221
168,0.98047566
169,-0.030528832
170,0.33587876
171,-0.013577081
172,-0.1263631
173,-0.08918538
174,0.43085915
175,0.14386973
176,-0.18304133
177,-0.70422006
178,-0.06811999
179,-0.15769969
180,-0.17128615
181,0.22984147
182,0.27927127
183,0.41065124
184,0.26355052
185,-0.016785197
186,0.1152349
187,0.67613196
188,-0.34372285
189,0.2727374
190,-0.16623278
191,-0.3046561
192,0.22698599
193,-0.22049084
194,0.2822473
195,-0.058428127
196,0.2354447
197,-0.2136402
198,-0.10088304
199,0.09011776
200,-0.23947367
201,-0.018299434
202,-0.07133989
203,0.024848044
204,-0.4291253
205,-0.11496716
206,-0.095929384
207,0.11363751
208,-0.022039294
209,-0.04839622
210,0.26090336
211,0.109457396
212,0.020055601
213,-0.18295616
214,0.33990833
215,0.12556885
216,-0.057722528
217,-0.41220134
218,-0.11969657
219,-0.39088437
220,-0.3732507
221,0.51820135
222,0.49612054
223,0.24767755
224,-0.072578475
225,-0.06417356
226,-0.28099775
227,-0.04279627
228,0.054228067
229,-0.0010486171
230,0.41560915
231,-0.24910906
232,-0.06488533
233,0.32525474
234,-0.33355075
235,-0.17391884
236,0.38627708
237,-0.0444277
238,-0.2627266
239,-0.10498806
240,-0.32456374
241,0.13766882
242,-0.26859808
243,-0.14274961
244,-0.02474399
245,-0.04531212
246,-0.07806651
247,-0.13467306
248,0.3019753
249,0.121457115
250,0.078322835
251,0.057305105
252,-0.12596758
253,0.3676051
254,-0.015758034
255,-0.12854739
256,-0.020589631
257,-0.16922906
258,0.046580005
259,0.08075218
260,-0.0969367
261,-0.14868483
262,0.019263221
263,-0.21731524
264,-0.23775914
265,0.23149244
266,0.08838435
267,0.18693098
268,-0.08777644
269,0.49264497
270,-0.122409254
271,0.049610987
272,-0.02278088
273,0.10301562
274,-0.04065601
275,-0.31941044
276,0.023255825
277,-0.052501112
278,0.19267002
279,-0.013178796
280,-0.04575244
281,0.2869773
282,-0.29889476
283,-0.124003045
284,0.5327381
285,-0.12112494
286,-0.14910676
287,-0.09113596
288,0.53226465
289,0.21694443
290,0.27978763
291,0.24453695
292,-0.22806117
293,-0.024997756
294,0.16817702
295,0.33006436
296,0.07443155
297,0.15130666
298,-0.19604611
299,-0.10405759
300,0.2064641
301,0.4617777
302,0.018817432
303,-0.2619325
304,-0.20414418
305,-0.24071518
306,-0.23945747
307,-0.15779206
308,-0.0019402998
309,0.12123962
310,-0.27980715
311,0.02335037
312,-0.013792008
313,-0.20231608
314,0.17396209
315,0.011366129
316,-0.3540107
317,-0.3053146
318,-0.08755246
319,-0.27408898
320,-0.1343871
321,0.02449317
322,0.07331911
323,0.1552403
324,0.40381402
325,0.367345
326,-0.0064551206
327,0.14727235
328,-0.5190912
329,0.15155853
330,-0.01763342
331,0.0020505637
332,-0.11005932
333,-0.0849905
334,-0.31805977
335,0.0903771
336,0.22830863
337,-0.14577651
338,-0.027997322
339,-0.3719116
340,-0.15663193
341,0.5103915
342,0.11319559
343,-0.1447194
344,-0.25323397
345,-0.33024073
346,-0.32925707
347,0.6313112
348,-0.025660448
349,0.19345903
350,0.0945733
351,0.06040439
352,-0.37729204
353,-0.57980746
354,0.05723107
355,-0.030032793
356,-0.13725023
357,0.26442915
358,-0.06736313
359,0.46773717
360,-0.17518464
361,0.18658751
362,0.016860696
363,0.2245483
364,-0.13376024
365,0.01218605
366,-0.029265096
367,0.19538388
368,0.3914198
369,0.19577122
370,-0.14489928
371,-0.2349143
372,-0.0072081955
373,0.046575002
374,0.19293337
375,-0.17016895
376,-0.0037905667
377,-0.10970286
378,-0.04144323
379,-0.12747474
380,0.009039745
381,-0.047586985
382,-0.02293358
383,0.24831782
384,0.022072919
385,-0.08097484
386,-0.696245
387,0.4182046
388,-0.25562146
389,-0.24554418
390,-0.028806575
391,0.07900785
392,-0.19185695
393,-0.23712294
394,-0.4648904
395,-0.0038990602
396,-0.13390507
397,0.1571939
398,-0.09609021
399,-0.3104918
400,0.2752093
401,0.1300258
402,-0.32343686
403,0.31719846
404,-0.6306052
405,-0.053224288
406,0.27180785
407,-0.44951943
408,-0.00076565146
409,0.030086327
410,0.21839768
411,-0.14560848
412,0.5022704
413,-0.26791537
414,0.24793997
415,0.320234
416,-0.14292988
417,0.080631584
418,-0.030259931
419,0.15968657
420,0.021062493
421,0.0223916
422,0.25659066
423,0.37154335
424,0.12833108
425,-0.17045519
426,0.07022448
427,-0.03772576
428,0.014446691
429,-0.098450035
430,0.12640043
431,-0.34394458
432,0.03835211
433,-0.03510052
434,-0.2543652
435,-0.102636725
436,-0.13180688
437,0.37703595
438,-0.3000296
439,0.14047311
440,0.17857057
441,0.10503958
442,0.21087527
443,-0.08753352
444,-0.19465691
445,-0.007750176
446,-0.047135457
447,-0.23452318
448,0.2186291
449,-0.25851005
450,-0.27159452
451,-0.15358232
452,-0.22961774
453,0.23475382
454,0.03343771
455,0.002166357
456,0.1778196
457,0.21950692
458,-0.24165627
459,-0.050903775
460,0.013954852
461,-0.0050268173
462,-0.14565852
463,0.014886344
464,0.2249734
465,-0.14492977
466,-0.29303694
467,0.16108608
468,-0.10697962
469,0.07211763
470,0.016973749
471,-0.5731381
472,0.036643744
473,0.13402405
474,0.22355288
475,-0.695013
476,-0.080850266
477,-0.22946137
478,-0.061083414
479,-0.11556573
480,-0.0046796463
481,-0.27214694
482,0.53089225
483,-0.30085352
484,0.10897924
485,-0.07485444
486,0.07243813
487,-0.028039536
488,0.0058917813
489,0.28014642
490,0.40183592
491,0.05561996
492,-0.033716574
493,0.030228406
494,-0.002483501
495,-0.14540316
496,-0.07050741
497,0.07428132
498,0.10891166
499,0.22987086
500,-0.13387051
501,-0.3169877
502,-0.19038884
503,0.1222422
504,0.091682985
505,0.6388961
506,0.26984394
507,0.1302002
508,0.01015925
509,-0.02330723
510,0.020258527
511,0.2590533
