,0
0,-0.19365823
1,-0.003009297
2,0.01697967
3,0.019626485
4,-0.17370312
5,0.03967541
6,0.1386351
7,0.13475844
8,0.010392749
9,-0.15746073
10,0.104457684
11,-0.11558235
12,0.012503967
13,0.14585672
14,0.07814981
15,-0.08569704
16,-0.18114159
17,-0.07135281
18,-0.079960614
19,0.24175233
20,-0.04156068
21,0.13809264
22,-0.07084084
23,0.23623392
24,-0.20128521
25,0.17891774
26,0.049699232
27,0.06756893
28,-0.06282426
29,0.2671147
30,-0.0618764
31,-0.14252353
32,0.004849825
33,-0.24142951
34,-0.014727514
35,0.67112446
36,0.10271818
37,-0.34055835
38,-0.19729057
39,0.034262665
40,-0.8195004
41,-0.13735357
42,0.002131395
43,-0.14430442
44,0.13646415
45,-0.05398431
46,0.013151147
47,-0.023848495
48,-0.20005634
49,-0.40058503
50,-0.06804674
51,-0.023514945
52,-0.1535218
53,-0.1292735
54,0.08416585
55,0.013210057
56,-0.0072476007
57,0.020641014
58,-0.005080331
59,0.013887148
60,-0.007971361
61,0.38688216
62,0.30204844
63,0.03870996
64,-0.07288771
65,0.102279566
66,0.106329635
67,-0.04720167
68,0.14338666
69,-0.13328782
70,0.15617788
71,0.35555828
72,-0.057931066
73,-0.4985378
74,0.11144386
75,0.12059726
76,-0.03326658
77,-0.20703883
78,0.30453655
79,0.047994655
80,0.043137457
81,0.10912544
82,0.32663268
83,-0.07719231
84,-0.081311435
85,-0.023531502
86,0.070124984
87,-0.13299401
88,-0.029826911
89,0.103406444
90,0.46539432
91,-0.081734724
92,-0.38569996
93,0.0647241
94,-0.007781069
95,0.046880707
96,0.3240325
97,0.006982904
98,-0.12057441
99,-0.30782098
100,0.20339221
101,-0.077266745
102,0.12321687
103,0.15403976
104,0.32452673
105,0.20572494
106,0.012174655
107,0.1387394
108,0.020138793
109,0.21772793
110,0.08255753
111,0.26907986
112,0.1287238
113,-0.06359808
114,-0.12247965
115,0.025114406
116,-0.38733488
117,0.024209946
118,-0.17674354
119,-0.2519269
120,-0.26517513
121,0.11653644
122,0.21918213
123,0.20899063
124,-0.15930803
125,0.21589315
126,-0.018291645
127,0.10535212
128,0.10773745
129,0.2673213
130,-0.14510672
131,0.025066284
132,-0.25165936
133,0.07868657
134,-0.1231803
135,0.18788832
136,0.22237445
137,-0.12074345
138,-0.13412607
139,0.13151836
140,0.36945185
141,-0.28351635
142,0.009626272
143,0.18112132
144,0.6539465
145,-0.15855858
146,0.014742166
147,0.06254223
148,0.13237444
149,-0.07338417
150,0.083037674
151,-0.26371562
152,-0.16110322
153,0.006541172
154,-0.10023545
155,-0.054453492
156,-0.2663234
157,0.013496313
158,-0.38640225
159,-0.28145072
160,-0.030280953
161,-0.03376904
162,-0.12935257
163,0.3009183
164,0.112719476
165,0.10332914
166,0.32586938
167,-0.10582018
168,-0.1404489
169,-0.2142346
170,0.12710449
171,0.27626836
172,0.044456802
173,-0.55235577
174,0.111479804
175,-0.09500166
176,0.37849817
177,0.13309816
178,-0.0783533
179,0.04264782
180,0.041958697
181,-0.044776335
182,-0.10645649
183,0.0013286425
184,0.06451016
185,-0.03273926
186,-0.09777664
187,0.08014422
188,-0.037796125
189,-0.060628943
190,0.053059634
191,-0.03841447
192,0.098397985
193,-0.36039007
194,0.10291172
195,0.14926378
196,-0.061819233
197,-0.16892835
198,-0.13719305
199,-0.12113589
200,-0.051422685
201,-0.028220778
202,0.10716486
203,-0.2581103
204,0.65461147
205,-0.09324729
206,-0.024260098
207,0.1257
208,-0.07857728
209,-0.06317153
210,0.02376343
211,-0.042827036
212,-0.25857052
213,0.18009275
214,0.0073766187
215,-0.13276923
216,-0.24404678
217,-0.16821294
218,-0.02943435
219,0.15996458
220,-0.3503193
221,0.082617275
222,-0.5874648
223,-0.12919362
224,-0.032355085
225,0.05773615
226,0.28835914
227,-0.01403074
228,-0.12424616
229,-0.25480893
230,0.34611642
231,-0.074177094
232,-0.058399633
233,-0.057052962
234,0.17986545
235,-0.0767489
236,0.32257533
237,0.24315368
238,-0.048538554
239,0.024355445
240,-0.048918124
241,0.0711328
242,0.047567315
243,0.10082118
244,0.027880397
245,-0.30565414
246,-0.15563741
247,0.050631788
248,0.21784146
249,0.0662611
250,0.3036392
251,-0.19852674
252,-0.26608986
253,-0.028390862
254,-0.0013625175
255,-0.2627631
256,0.090425864
257,-0.21393271
258,0.04556924
259,0.28393173
260,-0.09994872
261,-0.016485237
262,0.22172454
263,0.02176914
264,0.11521782
265,-0.12850197
266,0.0040551205
267,0.30026054
268,0.08577225
269,-0.08607608
270,-0.088177145
271,-0.16889516
272,-0.07398025
273,0.22732432
274,0.29362923
275,-0.1954554
276,-0.10024369
277,-0.0342962
278,0.072503224
279,0.27378544
280,0.053813454
281,0.027117264
282,0.37208927
283,0.022267118
284,0.112769336
285,0.098814666
286,-0.33706608
287,-0.0767457
288,-0.070795454
289,-0.045359947
290,0.38321385
291,-0.20409098
292,-0.036728308
293,-0.080762185
294,0.25020656
295,-0.16766283
296,-0.14587724
297,0.31028882
298,-0.030242816
299,-0.18820208
300,0.3179539
301,-0.13647515
302,-0.1328366
303,-0.25684372
304,0.15664288
305,-0.16872576
306,-0.37555113
307,-0.019630956
308,0.14526777
309,-0.08799228
310,0.041473426
311,0.22542812
312,-0.19644275
313,-0.13241139
314,-0.22023967
315,0.19389164
316,1.2488428
317,0.03360062
318,0.08106597
319,-0.117441215
320,-0.06557408
321,0.20541582
322,0.13465063
323,0.31186604
324,0.33659708
325,0.075347245
326,-0.2436846
327,0.5826609
328,0.16403545
329,-0.12580903
330,0.18119213
331,0.11487979
332,-0.13330285
333,-0.15617909
334,0.039715394
335,0.12126339
336,-0.29893947
337,0.3133717
338,0.020079724
339,-0.04857707
340,0.10711501
341,-0.17393997
342,-0.11206598
343,0.22388749
344,-0.11184976
345,-0.11783374
346,-0.12342091
347,0.11283506
348,0.35024434
349,0.070974745
350,0.26372036
351,0.23614657
352,0.058000892
353,0.113563456
354,0.74030817
355,-0.028130436
356,-0.11760517
357,-0.030333303
358,-0.053807847
359,0.47606573
360,-0.16742288
361,-0.015427537
362,-0.0353823
363,-0.18633628
364,0.056024723
365,-0.06958104
366,-0.2629691
367,0.04972272
368,-0.11569428
369,0.018149186
370,-0.066144906
371,-0.32005224
372,0.1454309
373,-0.13971964
374,-0.08474393
375,-0.15200692
376,0.032778196
377,-0.07605705
378,-0.07476265
379,-0.04629212
380,-0.17027096
381,-0.06920247
382,-0.10309498
383,-0.23121105
384,0.07058395
385,-0.16833507
386,-0.2946264
387,0.035474714
388,-0.29466075
389,-0.23251757
390,-0.20446286
391,0.13581996
392,0.5938002
393,0.057817355
394,-0.2359336
395,0.011316012
396,-0.03536755
397,-0.0756011
398,-0.047046542
399,0.07227671
400,0.06724214
401,0.1700054
402,-0.18639763
403,-0.077752516
404,0.2295318
405,0.04238347
406,0.0747426
407,0.054739654
408,-0.31091624
409,0.0010607876
410,0.14260955
411,0.2061181
412,0.046230894
413,0.026044745
414,0.16391788
415,-0.036158316
416,0.14343378
417,-0.032222122
418,-0.07335248
419,0.08348895
420,0.078665845
421,0.026397578
422,-0.03742415
423,-0.09623122
424,-0.006912251
425,0.13745382
426,-0.19165035
427,-0.10746364
428,-0.22268838
429,0.07038904
430,-0.16255237
431,-0.27462736
432,0.028033562
433,-0.028216053
434,-0.072389424
435,-0.00018123165
436,0.0023395866
437,0.012575854
438,-0.1034209
439,-0.015093055
440,0.14404106
441,-0.16874759
442,-0.42209762
443,-0.1634562
444,0.07909675
445,-0.36669004
446,-0.085244834
447,-0.04979738
448,-0.31596124
449,-0.3897463
450,0.021125216
451,-0.08902303
452,-0.17450207
453,0.19201611
454,-0.07679242
455,-0.0688103
456,0.14176823
457,0.25905216
458,0.12989904
459,-0.079668954
460,0.00703422
461,-0.11893116
462,0.69805366
463,0.08670649
464,-0.054468326
465,0.07863216
466,-0.12763882
467,-0.10951469
468,-0.07591206
469,-0.13425562
470,0.16980672
471,-0.2427932
472,-0.10607233
473,-0.09616814
474,-0.152679
475,0.15231486
476,0.22294134
477,0.021774143
478,-0.048151765
479,-0.032514386
480,0.21654493
481,-0.2542895
482,0.07929889
483,-0.0784722
484,0.1164033
485,-0.15312533
486,0.16608272
487,-0.059429273
488,-0.20570883
489,-0.12679324
490,-0.04408078
491,-0.03569171
492,-0.050693076
493,-0.1479936
494,-0.19284648
495,0.004171865
496,-0.11593453
497,0.2591927
498,0.033158787
499,-0.030248757
500,0.036770746
501,0.13372304
502,-0.14246902
503,-0.105159484
504,-0.27796775
505,-0.26168942
506,0.3488195
507,0.099186994
508,0.20273177
509,0.03215594
510,0.053843305
511,0.203122
