,0
0,0.07461426
1,0.18984523
2,0.01935149
3,-0.03333248
4,0.004021149
5,-0.17751336
6,-0.10904162
7,0.025328826
8,-0.059176542
9,-0.13905399
10,0.026181698
11,0.1642738
12,0.08613519
13,0.174862
14,-0.41180417
15,0.31764674
16,-0.05387265
17,0.085503764
18,-0.3873693
19,0.47177294
20,-0.16732615
21,-0.23740838
22,-0.06717585
23,0.066957556
24,0.059656315
25,0.059094325
26,0.16673575
27,0.055104032
28,0.20496953
29,0.24914591
30,-0.03699571
31,-0.36848366
32,-0.11378424
33,0.15784377
34,-0.041818827
35,-0.11382385
36,0.29011965
37,-0.041636825
38,-0.26331437
39,-0.043137953
40,-0.9768546
41,-0.05840184
42,0.0783612
43,-0.12639058
44,-0.018221851
45,0.011156347
46,0.023370937
47,0.2981059
48,-0.18088065
49,-0.015808675
50,-0.0020002536
51,0.07062775
52,0.040474564
53,0.075676575
54,0.29842263
55,0.021106185
56,0.080932714
57,-0.1758914
58,0.3401451
59,0.13949333
60,0.19696328
61,0.4245215
62,-0.07620617
63,0.14598316
64,0.25387812
65,0.09826753
66,0.15766485
67,-0.25413135
68,0.0559488
69,0.22631656
70,0.082930155
71,0.0036018323
72,0.06398459
73,-0.19198869
74,-0.23955692
75,0.21118131
76,0.07866041
77,-0.027431075
78,0.21001193
79,0.014128709
80,0.04026195
81,0.1305637
82,-0.09095429
83,-0.20973699
84,-0.037025616
85,0.002003504
86,0.07318802
87,0.013704276
88,0.021460563
89,0.0059406795
90,0.15348957
91,0.003338215
92,-0.31711727
93,-0.05170903
94,-0.15111889
95,-0.1351567
96,0.38597876
97,0.105009064
98,-0.14360932
99,-0.24321632
100,0.036941662
101,-0.06666945
102,0.231012
103,0.13007532
104,0.20869714
105,0.50629973
106,0.17638248
107,-0.23402444
108,0.0046006124
109,0.062797904
110,0.26882952
111,0.62419736
112,0.21516734
113,-0.12564294
114,-0.3204888
115,-0.06891662
116,-0.14495872
117,0.11070594
118,-0.4146073
119,-0.29206774
120,-0.051382184
121,0.0014674903
122,-0.11377063
123,-0.104884915
124,-0.1724248
125,-0.3030304
126,-0.069725856
127,0.2919818
128,0.21356072
129,0.06632477
130,0.1397301
131,0.057362378
132,-0.09699635
133,0.73912364
134,0.10828066
135,-0.111140504
136,0.031102015
137,-0.20828263
138,0.09669285
139,0.14234255
140,0.28452745
141,-0.18277805
142,0.047536373
143,0.30696425
144,0.8219069
145,-0.20218346
146,0.36239463
147,0.10517962
148,0.12447439
149,0.02098688
150,0.26437452
151,-0.308595
152,0.13704854
153,0.1582526
154,-0.21088544
155,-0.15673146
156,-0.1081109
157,0.28552985
158,-0.29292193
159,-0.32289034
160,0.062717676
161,-0.039331846
162,-0.077978626
163,0.37489647
164,-0.05035936
165,0.07650015
166,-0.09074674
167,0.09969929
168,-0.25406146
169,-0.1367624
170,0.116136745
171,0.075771645
172,0.30937493
173,-0.6694297
174,0.22874908
175,0.047261577
176,0.22610836
177,0.062156875
178,0.0924508
179,-0.033345107
180,-0.00083775073
181,0.017637525
182,-0.28093553
183,0.012804627
184,-0.11401565
185,0.06670889
186,-0.027412802
187,0.20836335
188,0.069160596
189,0.12423873
190,0.19756958
191,0.0796517
192,0.028467206
193,-0.4403316
194,-0.041362226
195,0.024611061
196,-0.020091953
197,-0.21559227
198,0.12905632
199,0.12517193
200,0.0786929
201,0.11571362
202,0.35180667
203,-0.10198664
204,0.400721
205,-0.14621936
206,-0.14041346
207,0.20063132
208,0.3573803
209,0.0069044745
210,-0.066390775
211,0.12566906
212,-0.5953051
213,-0.19015287
214,-0.29410115
215,0.11438012
216,-0.23038444
217,0.042011697
218,0.026900886
219,0.07507305
220,-0.2681965
221,-0.41856226
222,-0.58232963
223,0.21025476
224,-0.041355208
225,-0.076012954
226,-0.054513
227,-0.011064384
228,-0.060579006
229,-0.046763737
230,0.115529895
231,-0.17497778
232,0.14130531
233,-0.078508765
234,-0.12497362
235,0.002779942
236,-0.21940526
237,0.17410398
238,0.12644753
239,-0.3402626
240,0.042276565
241,0.147082
242,0.60621154
243,0.46618068
244,-0.17555416
245,-0.4042928
246,-0.19970983
247,-0.09018411
248,-0.01680519
249,-0.029321264
250,0.0412688
251,0.059705295
252,0.20018592
253,0.29564577
254,0.22747792
255,-0.22324683
256,-0.02467236
257,-0.18714498
258,0.07138956
259,-0.21549028
260,-0.12712605
261,0.011154577
262,0.038579434
263,-0.1925257
264,0.10490371
265,0.29019722
266,0.015070621
267,0.31546038
268,0.3149742
269,-0.15798748
270,-0.030279852
271,-0.05254316
272,-0.31954327
273,0.038728587
274,0.38481408
275,0.08357465
276,0.1755894
277,-0.23096094
278,-0.21953753
279,0.37273443
280,-0.13787816
281,-0.105020955
282,-0.04673272
283,-0.0989048
284,-0.48482278
285,0.11963016
286,-0.021401558
287,-0.08223567
288,-0.1411483
289,-0.060856335
290,0.091639064
291,-0.2700671
292,0.07931043
293,0.090509854
294,0.5174186
295,-0.25915167
296,-0.15595075
297,0.26750338
298,0.06728592
299,-0.1393367
300,0.169268
301,-0.18330345
302,0.09075759
303,-0.052022256
304,0.14115337
305,-0.25205788
306,-0.3113917
307,-0.1508551
308,0.10803183
309,-0.06670374
310,-0.17015494
311,0.2224278
312,0.011120163
313,0.28686333
314,-0.25981453
315,0.04587412
316,0.45421594
317,-0.12801181
318,0.31221002
319,-0.123828135
320,0.20858948
321,-0.09887911
322,0.5696758
323,0.050547495
324,0.47215798
325,-0.19591796
326,-0.22946215
327,0.39414936
328,-0.04619901
329,0.08990204
330,-0.22092059
331,-0.013028339
332,-0.40579575
333,-0.15927742
334,0.16449718
335,0.38317496
336,-0.27912962
337,0.0033912528
338,-0.1380313
339,0.076700404
340,-0.0100308545
341,-0.14005516
342,-0.044295575
343,0.028156905
344,-0.31698474
345,-0.31814727
346,-0.14767388
347,-0.124727204
348,0.014882237
349,-0.01936974
350,-0.041988317
351,0.27013654
352,0.036975138
353,0.040382236
354,0.69004476
355,-0.038364492
356,-0.096225135
357,-0.27629662
358,-0.03291597
359,0.16073638
360,-0.09398229
361,0.12213245
362,0.4019145
363,0.17786905
364,0.12998028
365,-0.00993691
366,-0.16824658
367,0.10996334
368,0.071228325
369,-0.22956112
370,-0.094462276
371,-0.21304852
372,-0.3171389
373,-0.30292872
374,-0.022209328
375,0.1495612
376,-0.30513218
377,0.13395467
378,0.11517991
379,0.11193165
380,0.022938482
381,0.0007899916
382,0.29793787
383,-0.24188463
384,0.09703616
385,-0.18118969
386,-0.03271348
387,0.04121994
388,-0.08390035
389,-0.057054892
390,-0.084822
391,-0.23126052
392,0.8752756
393,-0.047129024
394,-0.15461634
395,-0.10443665
396,0.05376881
397,0.093344346
398,-0.03081579
399,0.577044
400,-0.073616765
401,0.85118794
402,0.018354513
403,-0.20079601
404,-0.008127848
405,-0.04196392
406,-0.12610948
407,-0.008513756
408,0.14411497
409,0.12185498
410,0.29960966
411,-0.13742
412,0.16625795
413,-0.23977618
414,-0.102888376
415,-0.029139342
416,0.41555166
417,0.032415133
418,0.010919657
419,0.23009525
420,-0.019438088
421,-0.03359331
422,0.0892851
423,-0.17049141
424,-0.102174334
425,-0.12891209
426,-0.23361973
427,-0.22692819
428,-0.13670477
429,0.15476426
430,0.13015454
431,-0.20765503
432,0.30408284
433,-0.03878021
434,0.043819427
435,-0.13044144
436,-0.2605576
437,-0.059591956
438,0.077437505
439,0.16245958
440,0.09560546
441,0.01823024
442,-0.39317134
443,-0.0756084
444,-0.06762619
445,-0.42065585
446,-0.060925752
447,0.107300356
448,-0.27608508
449,-0.12405974
450,-0.06068819
451,-0.15245149
452,0.027229913
453,0.2551511
454,-0.028187264
455,0.03763876
456,0.49293917
457,-0.07558264
458,0.11428316
459,0.24875325
460,0.30522615
461,-0.017049521
462,0.5826005
463,0.0664798
464,-0.17989
465,0.25943604
466,0.08838843
467,-0.05392317
468,0.017980903
469,0.108088516
470,0.34498525
471,-0.21185261
472,-0.1626751
473,0.1077837
474,-0.11166303
475,-0.23617277
476,0.21481735
477,-0.12665722
478,-0.07348362
479,0.16193654
480,-0.2145306
481,-0.12539542
482,0.2647141
483,0.0171391
484,-0.1371298
485,-0.054798707
486,0.30593234
487,-0.1293071
488,-0.104469135
489,0.012865413
490,0.05990509
491,0.024428025
492,0.22329961
493,0.037773304
494,-0.07010138
495,0.00930002
496,-0.033044964
497,-0.21893293
498,0.15726012
499,0.0073889624
500,0.18368027
501,0.14370804
502,-0.2095784
503,0.05808305
504,-0.15886283
505,-0.14045185
506,-0.24774241
507,0.21895434
508,0.18178615
509,-0.15622675
510,0.3805042
511,0.027596883
