,0
0,0.106662005
1,0.03513352
2,-0.7927979
3,0.11617808
4,0.071055755
5,0.1616054
6,0.098534286
7,-0.12113798
8,0.12617072
9,0.16383311
10,-0.2525298
11,0.0024290755
12,0.10806097
13,0.10488543
14,0.00023721345
15,-0.3644406
16,-0.17051396
17,0.04483196
18,-0.016090792
19,0.03064926
20,0.16072494
21,0.1537281
22,0.19992925
23,-0.12757698
24,-0.10655846
25,-0.015536308
26,0.1196631
27,-0.35287136
28,0.09558556
29,0.34739798
30,-0.0884147
31,-0.19392887
32,0.12228
33,0.10969749
34,0.19546102
35,0.048111454
36,-0.007938087
37,-0.28846598
38,0.13687964
39,0.17691669
40,-0.017610822
41,0.14821799
42,-0.14517117
43,-0.1897636
44,-0.037497457
45,0.2526942
46,0.13075161
47,0.19696313
48,-0.15756968
49,-0.17918253
50,-0.4282319
51,0.120983474
52,0.29511493
53,0.024903726
54,-0.04271436
55,0.09572266
56,0.25314385
57,0.047285333
58,0.16046503
59,-0.09406353
60,0.15274006
61,0.086325794
62,0.16534615
63,-0.07365133
64,0.10093433
65,0.16446722
66,0.2658546
67,-0.09625706
68,-0.08637309
69,-0.1492551
70,0.0059724674
71,0.008825358
72,0.13968226
73,0.021509595
74,0.22761327
75,0.019261796
76,0.00962824
77,-0.1377909
78,-0.17579971
79,-0.25344187
80,0.063746125
81,-0.07830293
82,0.2004672
83,0.193935
84,-0.1099097
85,0.08048854
86,-0.0702765
87,0.24382988
88,0.026057817
89,0.03671807
90,0.020808637
91,0.049795322
92,0.26153716
93,0.030827595
94,-0.10289688
95,-0.015164025
96,-0.0062249806
97,-0.37293684
98,-0.007757701
99,-0.13365504
100,0.29997635
101,0.08444522
102,0.23399594
103,-0.0038875565
104,0.13158551
105,0.28640524
106,0.11901009
107,-0.1232749
108,-0.26144642
109,0.154167
110,-0.14726394
111,-0.108338065
112,0.10003985
113,-0.01923716
114,0.2294198
115,0.23582229
116,-0.20886675
117,-0.09162049
118,-0.048867803
119,0.1344502
120,-0.11114788
121,0.23472166
122,-0.02490978
123,-0.019158617
124,-0.23645292
125,0.19927415
126,-0.2626429
127,0.12327513
128,-0.036320485
129,0.01801288
130,0.049559463
131,0.17930709
132,-0.3010534
133,0.46443367
134,-0.33351648
135,0.24198887
136,0.22128227
137,-0.21398929
138,0.13464256
139,-0.17437983
140,0.087322965
141,0.057689324
142,0.12908256
143,0.052390136
144,0.36971706
145,-0.017715635
146,0.35533518
147,0.042200767
148,0.23292853
149,0.07878099
150,0.11914727
151,0.069335215
152,-0.041500818
153,-0.16898096
154,-0.01893738
155,0.08977919
156,0.15840602
157,-0.047111064
158,0.024047583
159,-0.077079915
160,0.13720658
161,0.17004117
162,-0.03740798
163,0.047084533
164,0.2913462
165,0.114613205
166,-0.015699357
167,0.011706885
168,0.43975464
169,-0.07996091
170,0.08156173
171,0.18655744
172,0.23109831
173,0.21411136
174,0.22435752
175,0.18314233
176,0.23264377
177,-0.42816976
178,0.07454598
179,0.09373981
180,0.18931793
181,0.08376163
182,-0.044534292
183,0.122086726
184,-0.17961842
185,0.23319747
186,0.08989522
187,0.45545927
188,-0.022890277
189,0.063225195
190,0.0072831307
191,0.15475076
192,0.0052758995
193,-0.124248624
194,0.15776134
195,-0.16846302
196,-0.050879907
197,-0.10617994
198,-0.1402103
199,-0.04102376
200,-0.23212609
201,0.12810192
202,0.12120247
203,0.09629415
204,0.23580386
205,-0.30289114
206,-0.46119255
207,0.05282703
208,-0.065217644
209,0.016779525
210,0.3540975
211,0.24383476
212,0.13052222
213,0.023181442
214,0.00424954
215,-0.011270293
216,0.0106741525
217,-0.07702097
218,-0.2040686
219,-0.18419912
220,-0.26959565
221,0.2776538
222,0.18412633
223,-0.010102229
224,-0.10780496
225,-0.2952629
226,-0.155756
227,-0.08664902
228,0.1491729
229,-0.23325735
230,0.25539443
231,-0.2495023
232,0.095170595
233,-0.15980858
234,0.15223296
235,0.2274498
236,-0.053449057
237,0.11169222
238,-0.19919646
239,0.009403624
240,-0.003362812
241,0.06177319
242,0.021938454
243,0.06995834
244,-0.0047254637
245,-0.09292586
246,-0.27536473
247,0.20445257
248,0.07729761
249,0.022259384
250,-0.044027716
251,0.008342644
252,0.12838455
253,0.13152209
254,0.0071484298
255,-0.41248757
256,0.38506413
257,0.15328404
258,0.22339848
259,0.039713316
260,-0.15204191
261,-0.14403215
262,0.0026666485
263,0.19706458
264,-0.21956174
265,0.09481381
266,-0.049453974
267,0.06286887
268,0.22046748
269,-0.060608096
270,-0.0421912
271,0.034093097
272,-0.10381203
273,0.16308758
274,0.0058072396
275,-0.39538133
276,0.17848535
277,-0.25495264
278,0.23384978
279,-0.011462994
280,-0.3570121
281,0.13417733
282,-0.02927758
283,0.110157296
284,-0.07395424
285,0.21746594
286,0.2262858
287,0.1844734
288,-0.10446876
289,0.015838616
290,-0.120135486
291,0.0807972
292,-0.16559216
293,-0.118996985
294,0.11543623
295,0.18062663
296,0.13586497
297,-0.004064711
298,-0.12994206
299,-0.01597615
300,0.27740002
301,0.099514976
302,0.19529666
303,0.11256832
304,0.34243593
305,-0.0144441575
306,-0.14756542
307,-0.41136116
308,0.07691863
309,-0.07588131
310,-0.13896614
311,0.3615477
312,-0.19396105
313,-0.13184588
314,0.061940156
315,0.01374571
316,-0.20994484
317,-0.024255749
318,0.074255586
319,-0.06557565
320,0.11926042
321,-0.1831445
322,0.24243169
323,0.042380244
324,0.24398364
325,0.21703844
326,-0.4222797
327,0.23933785
328,-0.09073044
329,0.35241184
330,-0.191493
331,0.35865775
332,0.13250273
333,-0.018693576
334,-0.17673486
335,0.067733735
336,0.24570435
337,0.010205634
338,-0.044512592
339,-0.07484352
340,-0.13535342
341,0.33425727
342,0.021419842
343,0.15584812
344,-0.119500384
345,-0.47799352
346,0.19882244
347,0.33355117
348,0.14089108
349,-0.11575216
350,0.08231865
351,0.09970099
352,0.12507284
353,-0.06624361
354,0.060505617
355,-0.11687407
356,0.0043826476
357,0.060895614
358,0.11785933
359,0.33205524
360,0.033575937
361,-0.07862268
362,0.059622392
363,-0.1459604
364,0.15741326
365,0.282416
366,0.0038185567
367,0.017196642
368,0.14800963
369,0.08990298
370,-0.20806144
371,0.09924555
372,-0.06313962
373,-0.046187036
374,-0.07511729
375,0.1728386
376,0.143714
377,0.1284685
378,0.00829961
379,-0.21199185
380,-0.05897602
381,0.21603882
382,-0.1212086
383,0.097124115
384,0.0030135596
385,0.0010397863
386,-0.14731789
387,0.15000397
388,-0.23304917
389,-0.03421003
390,-0.45345268
391,-0.04804739
392,-0.10630919
393,0.06958595
394,-0.47595626
395,-0.15487397
396,-0.1542227
397,-0.016403265
398,-0.0010343492
399,-0.03653517
400,-0.16533804
401,0.10038425
402,0.16859332
403,0.048832342
404,0.22685835
405,0.021465113
406,-0.0069883764
407,-0.099035166
408,-0.18190672
409,0.13377883
410,-0.07691767
411,-0.024626061
412,0.055967577
413,-0.15506107
414,-0.20208597
415,-0.06885059
416,-0.025409754
417,0.10219465
418,-0.079330295
419,0.07901515
420,0.045673497
421,0.05432684
422,-0.10808572
423,0.22195235
424,0.13180766
425,0.21342239
426,0.22001839
427,0.15415215
428,0.12836504
429,0.053454418
430,-0.057910323
431,0.14474091
432,-0.06351493
433,-0.11789709
434,-0.044134893
435,0.05784433
436,0.11483002
437,-0.10727345
438,-0.1248086
439,0.2078763
440,0.14298423
441,-0.06276219
442,-0.52673095
443,-0.28470117
444,-0.026171185
445,-0.14793079
446,-0.12302323
447,-0.19652116
448,0.23716399
449,-0.13333386
450,-0.12621938
451,0.3060856
452,-0.33816665
453,-0.18089849
454,-0.049391616
455,0.1048208
456,-0.2598322
457,0.0073258877
458,-0.13261001
459,0.15874618
460,-0.16514942
461,0.029375255
462,-0.09731461
463,-0.041104063
464,-0.20448361
465,-0.09635438
466,-0.36735016
467,0.00096520036
468,-0.10022569
469,-0.0130780265
470,0.07745239
471,0.1660743
472,0.06511257
473,0.036750864
474,0.36979234
475,-0.08936305
476,-0.17164712
477,0.12339119
478,0.0385473
479,-0.28750226
480,0.08319734
481,-0.0068953168
482,0.24552214
483,-0.13101618
484,-0.11055514
485,-0.09379175
486,0.2451631
487,0.03624843
488,0.17921862
489,0.05507986
490,0.22684054
491,-0.06275893
492,0.15277112
493,-0.028575497
494,-0.17024216
495,-0.25939417
496,-0.039137498
497,0.20391716
498,-0.019654369
499,0.1718288
500,-0.13495673
501,0.30175692
502,-0.16867644
503,-0.09017602
504,-0.23868763
505,0.34769297
506,-0.23689719
507,0.006766863
508,0.07823314
509,0.040545505
510,0.24555239
511,0.1258773
